digraph Tree {
node [shape=box] ;
0 [label="Destination_SoutheastAsia <= 0.5\ngini = 0.499\nsamples = 330\nvalue = [173, 157]"] ;
1 [label="Destination_Other <= 0.5\ngini = 0.385\nsamples = 215\nvalue = [159, 56]"] ;
0 -> 1 [labeldistance=2.5, labelangle=45, headlabel="True"] ;
2 [label="Airfare <= 29.0\ngini = 0.352\nsamples = 202\nvalue = [156, 46]"] ;
1 -> 2 ;
3 [label="Airfare <= 25.714\ngini = 0.5\nsamples = 32\nvalue = [16, 16]"] ;
2 -> 3 ;
4 [label="gini = 0.423\nsamples = 23\nvalue = [16, 7]"] ;
3 -> 4 ;
5 [label="gini = 0.0\nsamples = 9\nvalue = [0, 9]"] ;
3 -> 5 ;
6 [label="Province_Kyungsang-do <= 0.5\ngini = 0.291\nsamples = 170\nvalue = [140, 30]"] ;
2 -> 6 ;
7 [label="gini = 0.261\nsamples = 162\nvalue = [137, 25]"] ;
6 -> 7 ;
8 [label="gini = 0.469\nsamples = 8\nvalue = [3, 5]"] ;
6 -> 8 ;
9 [label="Age <= 48.0\ngini = 0.355\nsamples = 13\nvalue = [3, 10]"] ;
1 -> 9 ;
10 [label="gini = 0.0\nsamples = 9\nvalue = [0, 9]"] ;
9 -> 10 ;
11 [label="gini = 0.375\nsamples = 4\nvalue = [3, 1]"] ;
9 -> 11 ;
12 [label="DepartureTime_6am-12pm <= 0.5\ngini = 0.214\nsamples = 115\nvalue = [14, 101]"] ;
0 -> 12 [labeldistance=2.5, labelangle=-45, headlabel="False"] ;
13 [label="Airfare <= 36.5\ngini = 0.02\nsamples = 99\nvalue = [1, 98]"] ;
12 -> 13 ;
14 [label="Airfare <= 30.5\ngini = 0.124\nsamples = 15\nvalue = [1, 14]"] ;
13 -> 14 ;
15 [label="gini = 0.0\nsamples = 12\nvalue = [0, 12]"] ;
14 -> 15 ;
16 [label="gini = 0.444\nsamples = 3\nvalue = [1, 2]"] ;
14 -> 16 ;
17 [label="gini = 0.0\nsamples = 84\nvalue = [0, 84]"] ;
13 -> 17 ;
18 [label="Airline_KoreanLCC <= 0.5\ngini = 0.305\nsamples = 16\nvalue = [13, 3]"] ;
12 -> 18 ;
19 [label="gini = 0.0\nsamples = 2\nvalue = [0, 2]"] ;
18 -> 19 ;
20 [label="Province_Seoul <= 0.5\ngini = 0.133\nsamples = 14\nvalue = [13, 1]"] ;
18 -> 20 ;
21 [label="gini = 0.0\nsamples = 10\nvalue = [10, 0]"] ;
20 -> 21 ;
22 [label="gini = 0.375\nsamples = 4\nvalue = [3, 1]"] ;
20 -> 22 ;
}