digraph Tree {
node [shape=box] ;
0 [label="Province_Jeju <= 0.5\ngini = 0.405\nsamples = 330\nvalue = [237, 93]"] ;
1 [label="Destination_SoutheastAsia <= 0.5\ngini = 0.356\nsamples = 268\nvalue = [206, 62]"] ;
0 -> 1 [labeldistance=2.5, labelangle=45, headlabel="True"] ;
2 [label="Province_Seoul <= 0.5\ngini = 0.425\nsamples = 160\nvalue = [111, 49]"] ;
1 -> 2 ;
3 [label="Province_Incheon <= 0.5\ngini = 0.366\nsamples = 87\nvalue = [66, 21]"] ;
2 -> 3 ;
4 [label="gini = 0.335\nsamples = 80\nvalue = [63, 17]"] ;
3 -> 4 ;
5 [label="gini = 0.49\nsamples = 7\nvalue = [3, 4]"] ;
3 -> 5 ;
6 [label="Airfare <= 22.0\ngini = 0.473\nsamples = 73\nvalue = [45, 28]"] ;
2 -> 6 ;
7 [label="gini = 0.408\nsamples = 7\nvalue = [2, 5]"] ;
6 -> 7 ;
8 [label="gini = 0.454\nsamples = 66\nvalue = [43, 23]"] ;
6 -> 8 ;
9 [label="Airfare <= 28.5\ngini = 0.212\nsamples = 108\nvalue = [95, 13]"] ;
1 -> 9 ;
10 [label="gini = 0.375\nsamples = 4\nvalue = [1, 3]"] ;
9 -> 10 ;
11 [label="DepartureTime_9pm-6am <= 0.5\ngini = 0.174\nsamples = 104\nvalue = [94, 10]"] ;
9 -> 11 ;
12 [label="gini = 0.138\nsamples = 94\nvalue = [87, 7]"] ;
11 -> 12 ;
13 [label="gini = 0.42\nsamples = 10\nvalue = [7, 3]"] ;
11 -> 13 ;
14 [label="Destination_China <= 0.5\ngini = 0.5\nsamples = 62\nvalue = [31, 31]"] ;
0 -> 14 [labeldistance=2.5, labelangle=-45, headlabel="False"] ;
15 [label="Nationality_Japan <= 0.5\ngini = 0.474\nsamples = 44\nvalue = [27, 17]"] ;
14 -> 15 ;
16 [label="Destination_SoutheastAsia <= 0.5\ngini = 0.278\nsamples = 24\nvalue = [20, 4]"] ;
15 -> 16 ;
17 [label="gini = 0.111\nsamples = 17\nvalue = [16, 1]"] ;
16 -> 17 ;
18 [label="gini = 0.49\nsamples = 7\nvalue = [4, 3]"] ;
16 -> 18 ;
19 [label="Airfare <= 51.463\ngini = 0.455\nsamples = 20\nvalue = [7, 13]"] ;
15 -> 19 ;
20 [label="gini = 0.32\nsamples = 15\nvalue = [3, 12]"] ;
19 -> 20 ;
21 [label="gini = 0.32\nsamples = 5\nvalue = [4, 1]"] ;
19 -> 21 ;
22 [label="gini = 0.346\nsamples = 18\nvalue = [4, 14]"] ;
14 -> 22 ;
}